34 64
33 -0.122334346 0.05284946 -0.042571872 -0.19683765 0.05377813 -0.14014943 -0.034553923 0.2194118 0.13153274 0.2991505 -0.18033125 -0.021612793 -0.2556773 0.097161174 -0.049831875 0.36082408 -0.24972191 -0.015385195 -0.08587445 0.17943026 0.020141322 -0.1395301 0.03440381 0.1686862 0.14669785 0.12629637 0.13610984 -0.18758358 -0.016611082 -0.16810071 0.057433687 0.055859342 -0.12200341 0.09770679 -0.2225831 0.11364941 -0.03687466 -0.20380235 0.12983344 0.12916352 -0.06841557 0.064091064 0.3356551 -0.11026298 -0.33692777 -0.022624273 -0.04692098 -0.19707176 0.13704291 0.011756567 0.08320979 -0.0037066801 -0.110169575 0.03902631 0.27624127 -0.16059574 0.11843591 0.07099287 -0.05503283 -0.2983595 0.29755208 -0.03492127 -0.2120627 -0.3369956
0 0.23588191 -0.06833437 -0.1344621 -0.24204512 0.108844325 0.26582447 -0.24618414 -0.23337297 -0.28797564 0.18134515 0.06157565 0.21419622 -0.21230906 -0.19066149 -0.121213876 0.20960328 0.07215777 0.1350416 0.12222096 -0.038965564 0.027022736 -0.1833708 -0.05173046 -0.09544064 -0.2237348 0.16223767 0.25471362 0.19079955 -0.035822432 0.074348696 -0.011119336 0.17328316 0.010003314 -0.022377787 -0.15571341 -0.4117772 -0.16036318 -0.05742112 -0.07322048 0.15696235 -0.21226367 -7.027481e-05 0.1741934 -0.1642172 0.040423058 -0.0814355 0.22838025 -0.18627658 0.1333491 0.13782209 0.2196982 0.038094338 0.09085108 -0.16321756 0.32336122 -0.3171695 0.2798438 0.41768524 -0.08200096 -0.55194193 -0.081053935 -0.045802545 -0.43744075 -0.3310675
32 -0.18729919 -0.08603767 0.03511004 -0.14737171 -0.09588836 -0.44985372 0.03514083 0.30819595 0.4417031 0.41746974 -0.22314748 -0.21200922 -0.12850653 0.16095503 -0.070989914 0.2995812 -0.2392548 -0.117438935 -0.16216815 0.34164748 0.097472936 -0.16357179 0.13502145 0.2791949 0.119474426 0.13190597 0.19718188 -0.21290363 -0.124532335 -0.17475049 -0.023828615 -0.019142644 0.0097842505 0.23876745 -0.22153574 0.40850943 0.06691292 -0.33500448 0.24988475 0.18732195 -0.023755426 0.22437915 0.40848747 -0.035840463 -0.4394706 0.08604414 -0.19015676 -0.06523284 0.18247497 0.0778434 0.25532174 0.027380276 -0.2305702 0.07779068 0.1447951 -0.20338722 0.26876345 0.044053875 -0.17500243 -0.16713496 0.41143414 0.017995022 -0.17293951 -0.37867764
2 -0.017096067 0.0078017483 -0.18581216 -0.23661233 0.19428417 0.07485503 -0.098973274 0.11864533 -0.18569215 0.24864112 0.055287074 0.011677212 -0.10594538 0.02011959 -0.11794324 0.40431634 -0.09450251 0.059634212 0.0024871188 -0.0063360943 -0.07337823 -0.1607161 0.08840571 0.22296758 0.047071688 0.048277576 0.16683747 -0.046490878 -0.014364385 -0.0914267 -0.056647025 0.1648781 -0.11756319 -0.031608317 -0.33863625 -0.12784715 -0.022919951 0.07079102 0.120687366 0.14944814 -0.16886824 -0.12880917 0.2605995 -0.17792794 -0.029631585 -0.06408607 0.124392964 -0.20792969 0.17921351 0.044553936 0.24547166 -0.014977799 -0.16640842 -0.09004723 0.36415237 -0.3786502 0.021511327 0.20390111 0.013263738 -0.34766155 0.16260955 -0.14118706 -0.25808826 -0.36732513
1 0.24856415 0.035544254 -0.34023842 -0.29167837 0.14896972 0.26952174 -0.26764598 -0.14272027 -0.21774717 0.17369872 0.058267146 0.20523769 -0.12993713 -0.16349067 -0.03962819 0.30002365 -0.04474253 0.22682297 0.14164764 0.043660816 -0.029471798 -0.17911594 0.016287051 0.056281414 -0.06663422 0.17396602 0.26969826 0.14415558 -0.17858721 -0.020410996 -0.03216214 0.03792838 -0.18498738 -0.03416941 -0.2501253 -0.27735937 -0.19725612 0.0054343482 0.05204989 0.1686383 -0.23487464 -0.17041717 0.2584713 -0.17022112 -0.041584924 -0.14005904 0.091700025 -0.11426502 0.09956281 0.02129376 0.14628299 0.10316214 -0.03293253 -0.1721806 0.4615888 -0.35434243 0.13004793 0.29152673 0.051934462 -0.48205584 -0.039505333 -0.13125566 -0.41886234 -0.3657961
31 -0.029820435 -0.07608322 0.07002139 -0.14916119 -0.048028015 -0.22860104 -0.06763768 0.10588343 0.08476139 0.22413474 -0.14284132 0.023482207 -0.21251957 -0.04218144 -0.1683788 0.21994106 -0.028916499 0.067806326 -0.09443259 0.15508555 0.16869636 -0.20384683 0.04101755 0.035487507 -0.0071846736 0.13087946 0.11149821 -0.019333813 0.057837937 -0.020463629 -0.10196283 0.04155109 0.002274015 0.18826014 -0.13881172 0.124565475 0.0017384154 -0.30198458 0.0394509 0.18334918 -0.0042059994 0.17324507 0.28679654 0.0034637558 -0.19692874 0.056249466 -0.11768053 -0.05460671 0.19749674 0.07384193 0.2569951 0.019454626 -0.09116317 -0.10679848 0.12586637 -0.08735628 0.21073864 0.14657357 -0.16141728 -0.23589772 0.20736048 0.06971996 -0.26189813 -0.24155802
23 -0.3347326 -0.06575037 0.37420836 -0.07620223 -0.09621976 -0.35614467 0.013943208 0.38063204 0.14933534 0.47595695 -0.32675654 -0.08673377 -0.39812708 0.3382933 -0.11428654 0.47105333 -0.32051978 -0.09962472 -0.30661866 0.1386961 0.124652594 -0.13249312 -0.052056625 0.23291841 0.16293052 -0.00013602711 0.05783862 -0.22563027 0.23962593 -0.14684872 -0.019072687 0.073648766 0.016749585 0.21185787 -0.22308393 0.33718163 0.071279034 -0.38734424 0.08027181 -0.049397044 0.0046882695 0.32264653 0.27429864 -0.01234921 -0.45557687 0.12587307 -0.05829449 -0.23216571 0.13039766 -0.04582593 0.13160467 0.029106688 -0.09206483 0.089709476 0.0064282264 -0.0342919 0.2526552 -0.06839466 -0.14922063 -0.20367284 0.41207135 0.13898797 -0.12622175 -0.43274376
3 0.17747799 -0.025321241 -0.16144046 -0.24682106 0.14776404 0.36046818 -0.26495937 -0.16125806 -0.385987 0.29545483 0.074619904 0.21559912 -0.19724242 -0.06499462 -0.07241634 0.33335033 -0.026959803 0.113524765 0.11512391 -0.078946866 -0.08383399 -0.14905491 -0.052680682 0.03554881 -0.16936357 0.08798831 0.25575837 0.13430619 0.008839565 0.010145022 0.00797257 0.17772877 -0.053535234 -0.10567735 -0.24351856 -0.43195018 -0.18809767 0.09014697 -0.020886356 0.05414136 -0.29173988 -0.08112124 0.16172567 -0.23543827 0.038844194 -0.06507615 0.32562336 -0.3035868 0.085995756 0.09308786 0.17580165 0.034794234 0.061661873 -0.13527972 0.37008217 -0.36661702 0.2321422 0.36817583 0.004076033 -0.5542882 -0.06445352 -0.08094545 -0.4279006 -0.4532439
8 -0.028757924 -0.027459383 -0.14083742 -0.18259422 0.06036108 -0.1854167 0.036487065 0.09664978 0.23906942 0.21823001 -0.038112585 -0.11224626 -0.040851556 0.014641953 -0.06339426 0.16724366 -0.13732822 -0.06013463 0.051156 0.21592079 -0.009060572 -0.10153989 0.07412828 0.1579353 0.014634024 0.11121743 0.22033349 -0.15179496 -0.21138327 -0.18550353 0.04970696 0.06199228 -0.027059048 0.036846906 -0.12685166 0.14034575 0.014155322 -0.10386603 0.23767997 0.175548 -0.03486284 0.068634346 0.2729096 -0.08107165 -0.2310173 -0.017318504 -0.016301978 -0.08715671 0.10942316 0.13564956 0.18659773 -0.0018607907 -0.14501941 0.037728176 0.2822144 -0.27517956 0.19393499 0.19525948 -0.11470717 -0.2722735 0.23453744 -0.13220401 -0.13033877 -0.22065876
13 0.073468745 0.031212473 -0.14859602 -0.22429559 0.15720332 0.09959344 -0.14754482 0.0323383 -0.20257841 0.19539422 -0.014288125 0.1208791 -0.19156641 -0.08984742 -0.10925285 0.31836164 -0.06597538 0.16191971 0.05178384 0.014179611 0.012996313 -0.20639837 0.044219714 0.07033414 0.026239581 0.13182113 0.13684565 0.048287913 0.005406102 0.011015462 -0.04365232 0.119820416 -0.14752784 0.0118745025 -0.26468125 -0.16976002 -0.07821195 -0.05043016 0.05254243 0.16459689 -0.14046662 -0.08579554 0.27859592 -0.15840389 -0.06155599 -0.073817894 0.06177568 -0.15368995 0.15578865 0.024088016 0.20868282 0.026522283 -0.050799236 -0.15975328 0.33082804 -0.26268613 0.07157304 0.23024328 -0.026451353 -0.38245553 0.111147106 -0.083634034 -0.35436642 -0.30013385
29 -0.13458286 0.085465066 0.09517276 -0.178037 0.040460616 -0.08867176 -0.008094094 0.20478353 0.14463641 0.3552411 -0.24188389 0.029131355 -0.3926705 0.18884514 0.0018052439 0.36658946 -0.35188192 -0.08842226 -0.083569236 0.18033753 -0.012442253 -0.052772038 -0.11766392 0.14849591 0.13060313 0.108287774 0.1554097 -0.29215828 0.03442342 -0.26589754 0.18993233 0.074089505 -0.102484584 0.040260524 -0.15644145 0.08075189 -0.095996626 -0.25683847 0.10231766 -0.02956776 -0.07827408 0.1416236 0.23715048 -0.109391876 -0.4459281 -0.033178248 0.051231466 -0.31401175 0.038240645 0.01676152 -0.07251575 -0.0102293 -0.026309613 0.14501305 0.26163697 -0.09137508 0.21551062 0.08943992 -0.068519846 -0.4062805 0.3040822 -0.015329493 -0.16365746 -0.38913816
30 0.043365818 -0.014310611 -0.17302546 -0.21805006 -0.0006163905 -0.17031232 -0.105971314 0.098822296 0.16990505 0.21578486 -0.08862574 -0.027084023 -0.09372869 -0.052357994 -0.07071855 0.25854856 -0.12921938 0.12042727 -0.0014354656 0.24800341 0.07895214 -0.19181538 0.122073375 0.15771952 0.0603663 0.18257068 0.20478551 -0.009578967 -0.18828352 -0.06802923 -0.08479616 -0.038686313 -0.13498794 0.14138773 -0.21832488 0.15128848 -0.020923028 -0.21362875 0.1851363 0.24271737 -0.06271387 0.02100955 0.38370514 -0.069809146 -0.26580897 -0.026340358 -0.15734814 0.0031416295 0.15520439 0.02668136 0.21230653 0.099199764 -0.15232529 -0.08791017 0.29400244 -0.24066892 0.16742693 0.13199659 -0.085582666 -0.26583812 0.20315747 -0.055603623 -0.2861303 -0.29101238
5 0.29879674 -0.32465452 0.0049213604 -0.24112053 0.060206294 0.22549002 -0.17517836 -0.47117642 -0.21369642 0.31452078 0.1034801 0.15780596 -0.19356094 -0.3557676 -0.34604302 -0.045020893 0.33699593 -0.06703196 0.19691207 -0.060313232 0.09253953 -0.19051422 -0.012544442 -0.3176121 -0.5531729 0.22465333 0.34357744 0.24513377 -0.023907926 0.13404252 0.10978664 0.42034346 0.41301605 0.009466558 0.046634965 -0.6718575 -0.17011033 -0.041621197 -0.1566572 0.2609232 -0.19812562 0.23035876 0.10573564 -0.23997656 0.1837844 0.08764234 0.41116327 -0.2780393 0.23222825 0.44674933 0.54223305 -0.1369813 0.2292598 -0.18193015 0.20003025 -0.39378688 0.69357216 0.77316105 -0.38509938 -0.7072282 -0.09887735 0.008721976 -0.5150302 -0.33629748
6 0.25617093 -0.40741017 0.067471206 -0.19939835 0.06473619 0.16648597 -0.09606002 -0.45643002 -0.124731295 0.3419191 0.058458272 0.085506156 -0.18325138 -0.34852022 -0.39032698 -0.13169235 0.36118132 -0.15617016 0.2020453 -0.04763377 0.08653998 -0.17265669 0.035992414 -0.33048245 -0.5728918 0.2616033 0.2842007 0.20494485 -0.017852055 0.118954845 0.17675681 0.4869365 0.51357985 0.031844966 0.113081336 -0.65053564 -0.13584754 -0.045680486 -0.18326119 0.25534892 -0.16335438 0.26242998 0.03910792 -0.2863882 0.17075187 0.12796065 0.38277966 -0.2706502 0.23242915 0.466428 0.58906704 -0.17543133 0.26335564 -0.17303507 0.10405227 -0.3325872 0.73395663 0.8058366 -0.41457307 -0.66516954 -0.037183043 0.059531536 -0.43729174 -0.29094654
27 -0.2462889 -0.035850894 0.16427538 -0.15658417 -0.07290956 -0.32465997 -0.086209774 0.40835854 0.0063618985 0.4189769 -0.20107144 -0.03812826 -0.26884058 0.17123109 -0.20534354 0.545139 -0.17438555 0.066412374 -0.32557908 0.08841011 0.15551117 -0.27052665 0.103960395 0.2674278 0.20169415 0.048724398 0.024839036 -0.096086726 0.24464169 -0.034849834 -0.23721062 0.06790144 -0.082310036 0.26069343 -0.41252163 0.23882976 0.078226864 -0.29765496 0.0758606 0.13813815 -0.03395452 0.11528455 0.4101751 -0.006365555 -0.25383845 0.060380217 -0.13964713 -0.15445527 0.2637656 -0.07174493 0.30817747 0.041504133 -0.22192176 -0.063130155 0.10670846 -0.13282007 0.09408058 -0.070722945 -0.11399059 -0.14774422 0.34684047 0.12722677 -0.27259022 -0.41928992
24 -0.19607198 -0.09622147 0.24222213 -0.115725204 -0.19300134 -0.4497897 -0.10299288 0.34578097 0.084342875 0.34709984 -0.28356254 -0.020351386 -0.2971045 0.05880183 -0.24218933 0.39689592 -0.08683974 0.16264273 -0.31621066 0.16665071 0.30334157 -0.33706477 0.10924079 0.12791318 0.1528694 0.12579308 -0.031711325 0.02553555 0.24254291 0.096848875 -0.3144019 -0.014946786 -0.051044554 0.3782486 -0.3033946 0.35496217 0.118586324 -0.47127745 0.02653981 0.21167877 0.05190575 0.23261252 0.4580468 0.05710154 -0.3010475 0.14167699 -0.30981106 0.008560282 0.28606927 -0.08644441 0.36428407 0.11031024 -0.14049649 -0.18798621 -0.015761439 0.0091425795 0.162968 -0.07305525 -0.21035883 -0.09647642 0.331203 0.22374755 -0.3311653 -0.3224869
7 0.18292287 0.017756876 -0.20471959 -0.2172577 0.1512672 0.2693807 -0.22058779 -0.123881385 -0.27711678 0.16025658 0.051355757 0.17923449 -0.15087359 -0.12706918 -0.055097174 0.24914755 -0.034395043 0.17389147 0.1403461 -0.013996176 -0.048966486 -0.1498447 -0.021565353 -0.0027680665 -0.08084319 0.14439121 0.1955651 0.14138593 -0.08126394 0.04218862 -0.0022014084 0.10287911 -0.12094177 -0.051226042 -0.20315927 -0.30923936 -0.14133424 0.023700839 0.025266679 0.1121794 -0.20116557 -0.11151868 0.20152083 -0.18737999 -0.008649404 -0.098372646 0.1695803 -0.15378094 0.08380727 0.050936356 0.1510129 0.06944394 0.043454677 -0.16379121 0.35786214 -0.28889337 0.1432038 0.29508236 -0.0051443055 -0.45463303 -0.022253405 -0.11393385 -0.3735996 -0.3021679
25 -0.2798028 -0.19641577 0.55860245 -0.06232282 -0.3039415 -0.4689131 -0.102022 0.3198952 0.06973481 0.5080696 -0.3676911 -0.0037480646 -0.4625115 0.1715365 -0.2990147 0.40782496 -0.08442044 0.008483225 -0.4455418 0.116247214 0.35231438 -0.27943182 -0.0008708171 0.044442005 0.021969073 0.064104386 -0.015697898 -0.037762746 0.44481057 0.08932057 -0.23390327 0.0953088 0.15164727 0.40013233 -0.22292274 0.24618667 0.08421678 -0.58587724 -0.10296172 0.0743441 0.052844197 0.46664503 0.3606137 0.09108995 -0.32703802 0.23393272 -0.13796383 -0.1875096 0.2652427 0.037044935 0.3583459 0.03667953 -0.033659965 -0.060505703 -0.16688436 0.07559418 0.4269346 -0.0014482001 -0.35388038 -0.19525068 0.33692393 0.3449584 -0.3479616 -0.42512867
10 0.24149728 -0.29819202 0.020342922 -0.18468738 0.16682543 0.12448062 -0.075787365 -0.3861944 -0.18799143 0.16396853 0.09467845 0.101061836 -0.17238255 -0.33464852 -0.32574394 -0.10203033 0.3005841 -0.049060397 0.2405601 -0.044422835 0.06416519 -0.16271438 -0.00494902 -0.31509665 -0.45756975 0.22442928 0.27033508 0.19446144 -0.04131065 0.15423712 0.1265912 0.394757 0.34902188 -0.03750881 0.09213594 -0.51405466 -0.091765545 -0.07308071 -0.085915476 0.2648412 -0.09840243 0.22072448 0.06435099 -0.21103711 0.16231443 0.07423182 0.3201321 -0.1649529 0.22786012 0.42850584 0.50302976 -0.132588 0.20359889 -0.2179711 0.15520279 -0.32669705 0.5250584 0.7347334 -0.34196058 -0.60139763 -0.0033475726 -0.062085185 -0.38104317 -0.15858525
4 0.2624391 -0.24335662 -0.008866704 -0.16811714 0.14567213 0.13298315 -0.11739831 -0.36942753 -0.19787677 0.106554896 0.079816625 0.14926176 -0.16438082 -0.36073765 -0.30266947 -0.0971008 0.29891744 0.043268055 0.2279547 -0.032841843 0.09397366 -0.16808604 -0.0077220034 -0.32263646 -0.40120575 0.23733842 0.23165406 0.24280688 -0.04191463 0.19029921 0.077367194 0.30466786 0.27100888 -0.0074680625 0.070424214 -0.47265208 -0.109217055 -0.085264266 -0.07810789 0.2659916 -0.09255708 0.18462089 0.087161236 -0.16599981 0.15174635 0.06308517 0.2328518 -0.10402241 0.22601348 0.35730886 0.4605579 -0.099050775 0.18842992 -0.24786527 0.15357073 -0.26656568 0.45281902 0.63806593 -0.31060702 -0.53198993 -0.03126718 -0.047906302 -0.38749638 -0.121728964
18 -0.016503017 0.051181596 0.015897373 -0.21908955 0.011432789 -0.2696494 0.007940649 0.0780376 0.31832778 0.20466617 -0.18506281 0.043389797 -0.2492336 0.065166146 -0.0646882 0.24537985 -0.18948266 -0.021045258 -0.037885927 0.30145144 0.14481057 -0.062242318 -0.07878139 0.045264766 0.017752029 0.104137056 0.32349062 -0.24918245 -0.090726756 -0.26836455 0.13426383 -0.09329499 -0.037275944 0.07536195 -0.010886546 0.21714249 -0.16768911 -0.40137225 0.17898117 0.10227865 0.06059894 0.27592605 0.28624877 0.072462425 -0.40251303 -0.004528219 -0.06291827 -0.13465074 0.10270015 0.20314586 0.013951974 -0.037358407 -0.15963618 0.1421742 0.3055599 -0.15093791 0.28784177 0.15904768 -0.15163247 -0.3661808 0.25127962 -0.09847403 -0.14492922 -0.2303784
19 0.26948628 0.030083505 -0.16052592 -0.2522277 0.12397931 0.16136606 -0.2015745 -0.19960718 -0.12533467 0.061319932 0.011247459 0.25902352 -0.21304366 -0.17922997 -0.08003972 0.18137792 0.0018306847 0.18590195 0.113557376 0.08569043 0.066325724 -0.10920998 -0.075454995 -0.10392516 -0.16199514 0.15757354 0.30005386 0.07349894 -0.085667245 -0.008979325 0.06460671 0.0025371297 -0.08518392 -0.045769934 -0.06613542 -0.26972738 -0.25499853 -0.16763772 0.008075858 0.1434078 -0.09657152 0.03881558 0.18422489 -0.051186968 -0.041990228 -0.10634551 0.111549444 -0.13706812 0.09972072 0.19841678 0.06272355 0.009745867 -0.015033637 -0.08830204 0.39008334 -0.25392327 0.24078476 0.34230572 -0.057937384 -0.48656878 -0.053905167 -0.1220981 -0.3661608 -0.22037409
28 -0.028757222 0.042637557 0.0181133 -0.19905533 -0.08470053 -0.2556902 -0.13941829 0.18354124 0.10580673 0.23079674 -0.16720647 0.0883404 -0.26219416 0.014998484 -0.11898969 0.3593525 -0.1167124 0.15379241 -0.18219458 0.2080813 0.20642172 -0.19067654 0.0019416059 0.10930221 0.095663086 0.13333127 0.12724154 -0.088239215 0.07878367 -0.07486123 -0.13299142 -0.087126605 -0.15418623 0.18982899 -0.23534018 0.18002622 -0.07586809 -0.37778872 0.070000835 0.16210417 -0.011554963 0.126662 0.37165236 0.064195216 -0.28316385 0.014127845 -0.19458559 -0.072535485 0.19333702 0.004470591 0.14090325 0.052547827 -0.17655982 -0.060088083 0.23065925 -0.06882803 0.13911454 0.029626729 -0.1264611 -0.23635139 0.198041 0.062388316 -0.31055138 -0.31846082
21 0.4567975 0.009501748 -0.3397251 -0.31454176 0.06293805 0.32340947 -0.35497624 -0.3370456 -0.17690451 0.10181502 0.0422422 0.37362912 -0.17003717 -0.35024896 -0.11897446 0.14184427 0.08848662 0.32455537 0.14698292 0.10100118 0.080195405 -0.15557441 0.0011114444 -0.11054095 -0.19475108 0.2993576 0.31090158 0.24140595 -0.196579 0.042805884 -0.029086702 -0.05331567 -0.13462012 0.022140093 -0.105323814 -0.39059523 -0.3410277 -0.13964467 -0.09157379 0.2008697 -0.23410964 -0.1438065 0.1913114 -0.110874824 -0.006818804 -0.10717742 -0.017395794 -0.023139 0.088556826 0.043398917 0.10850868 0.12603028 0.036857 -0.23698013 0.41793814 -0.22273117 0.27091783 0.33864874 -0.037443146 -0.52218497 -0.16817239 -0.057979297 -0.4916507 -0.30364123
26 -0.14180726 0.1289224 0.1912637 -0.14977176 -0.0036387602 -0.020875875 -0.051472966 0.09883503 0.1388863 0.3645785 -0.22440425 0.092272066 -0.48303756 0.23275714 0.058383726 0.31231815 -0.3959007 -0.14010663 -0.077404566 0.13114046 -0.009655524 0.0035267496 -0.24722055 0.07240616 0.051332757 0.020855006 0.22038879 -0.33336076 0.06325956 -0.30907795 0.2829933 0.08137853 -0.10112954 -0.03368207 -0.062372155 0.03799653 -0.12683512 -0.28788736 0.061039284 -0.16072342 -0.10796269 0.23743235 0.15756485 -0.056251764 -0.48737913 -0.02485668 0.20979522 -0.4095908 -0.045414418 0.08426509 -0.23787169 0.0043027387 0.056393206 0.24183333 0.262457 -0.059209324 0.32334703 0.114033304 -0.068523385 -0.5142672 0.23485489 -0.018323235 -0.1928033 -0.3862316
14 -0.13262762 -0.07595484 -0.046394993 -0.20940132 0.0091273775 -0.379848 0.07525089 0.20797154 0.42688704 0.33851358 -0.13788868 -0.19063032 -0.099669695 0.107667305 -0.09788519 0.24833494 -0.19138667 -0.16296591 -0.08483928 0.32291263 0.07629998 -0.107339695 0.1160708 0.2301296 0.04823424 0.101387106 0.29492182 -0.2632432 -0.20389579 -0.2815941 0.05926325 0.04453707 0.023762573 0.1473365 -0.14629404 0.29144177 0.01424677 -0.2681636 0.2662912 0.20210813 -0.00083869416 0.20964158 0.36179626 -0.035099264 -0.3770651 0.034277543 -0.07871299 -0.116735585 0.18362395 0.20141421 0.22166759 -0.046967305 -0.24870752 0.13740432 0.25918677 -0.27385816 0.30475038 0.17927188 -0.17061204 -0.2907747 0.38709936 -0.099509165 -0.12373409 -0.31840456
22 -0.10497139 0.058174778 -0.031198174 -0.22192845 -0.012582547 -0.30642238 -0.010128507 0.25193647 0.35777625 0.35187444 -0.22100222 -0.036402777 -0.27231103 0.17486651 0.010007848 0.39024976 -0.3281781 -0.02440182 -0.09165766 0.3448808 0.06824847 -0.10793186 -0.04048025 0.24722028 0.13910948 0.13215245 0.266872 -0.2602125 -0.13464701 -0.27900732 0.064109124 -0.09588556 -0.13983712 0.12308005 -0.18573417 0.36141893 -0.07170654 -0.36771724 0.27121758 0.109829605 -0.045578863 0.2020947 0.3911078 -0.014797484 -0.52842504 0.010774809 -0.12994714 -0.14029865 0.10751062 0.028382018 0.051551916 0.036436316 -0.19771527 0.11327253 0.32114986 -0.20324291 0.221734 0.051343538 -0.09639397 -0.318296 0.3459179 -0.07332289 -0.17696798 -0.41523653
16 0.2621288 -0.42154202 0.11083518 -0.21006757 -0.025779732 0.23975432 -0.16663073 -0.45958814 -0.19153695 0.46258044 0.08840026 0.11812411 -0.1965177 -0.28322434 -0.3461155 -0.032637592 0.3475658 -0.18921582 0.13559683 -0.09293901 0.056527004 -0.16801406 0.012422386 -0.24485704 -0.6224054 0.18447497 0.33127728 0.22753614 0.036868278 0.10818253 0.11846703 0.46860573 0.5310261 0.019049855 0.05311698 -0.67850506 -0.13140559 0.004589322 -0.22988907 0.1833441 -0.27651015 0.26113868 0.021257067 -0.29033798 0.18474437 0.15213054 0.4612724 -0.34927705 0.20186172 0.42951003 0.5511314 -0.13845062 0.2610054 -0.13338317 0.08854259 -0.39743295 0.7765624 0.7580449 -0.37759086 -0.68516606 -0.10425293 0.10314814 -0.49426335 -0.43595567
15 -0.101717025 0.01373818 -0.14876449 -0.1882368 -0.03376306 -0.31728882 0.059126865 0.18808793 0.42166942 0.27199492 -0.12800562 -0.18452798 -0.053939562 0.05584216 0.022185769 0.21578528 -0.22396131 -0.0723794 0.024313364 0.31718078 0.04256134 -0.17081292 0.12891845 0.20185784 0.11059117 0.12651078 0.21351677 -0.16315165 -0.24984972 -0.19928317 0.019831952 -0.047182754 -0.062546425 0.15107474 -0.16945754 0.36666676 0.07302661 -0.1966408 0.3003245 0.21778229 0.0034928173 0.10508517 0.4000779 -0.06606723 -0.40686503 -0.021697927 -0.13189402 -0.020665027 0.110064104 0.06430537 0.15220886 0.050758325 -0.17873745 0.06579029 0.26461858 -0.24681166 0.16867416 0.056082457 -0.081524216 -0.20072205 0.30812737 -0.06998067 -0.13264945 -0.23161198
17 0.24322066 -0.04360346 -0.14634061 -0.2225893 0.106058486 0.17255105 -0.23220086 -0.1831305 -0.23935764 0.12763713 0.04006188 0.2219791 -0.1516082 -0.18529691 -0.124460906 0.19043723 0.05597496 0.2179774 0.10975456 0.01911203 0.050591886 -0.1832926 -0.016253194 -0.0776057 -0.17069443 0.1629182 0.23286206 0.20245159 -0.06334269 0.11786254 -0.05651071 0.05751885 -0.050380897 -0.012030125 -0.15308486 -0.27002552 -0.16398534 -0.085844025 0.01929729 0.15317951 -0.14391254 -0.0005170377 0.2190759 -0.09721438 0.029311936 -0.04294756 0.12414957 -0.08967778 0.13048077 0.13767824 0.23141275 0.072577275 0.026225353 -0.20515051 0.3115106 -0.2901938 0.22940399 0.3466996 -0.08898271 -0.45772976 -0.041384682 -0.09331206 -0.4207567 -0.26631257
9 -0.074161254 0.08027055 -0.20091964 -0.24875271 0.18420388 -0.058697388 -0.08060266 0.25092927 -0.11940444 0.23349744 0.014663692 0.02374329 -0.12183237 0.060570996 -0.11663817 0.48022395 -0.16537887 0.10720047 -0.06829241 0.036907278 -0.028823914 -0.18019497 0.07575368 0.27789322 0.16154946 0.038432688 0.14099531 -0.11713733 -0.0018338633 -0.14326467 -0.113815844 0.080945805 -0.22812149 -0.0030088706 -0.38348874 0.02331866 -0.035688195 -0.023874566 0.18348062 0.16081397 -0.11822303 -0.13008605 0.33486813 -0.07833751 -0.102202155 -0.0852534 0.024824616 -0.1691756 0.1967847 -0.00047437212 0.1944488 -0.0013911966 -0.26479626 -0.058603916 0.4051786 -0.34031934 -0.06805243 0.09921807 0.033114955 -0.2784858 0.23004456 -0.1638433 -0.23161119 -0.3384479
20 -0.18710066 -0.049498275 -0.021380972 -0.1691819 0.026879873 -0.50279623 0.15242435 0.2887873 0.5584526 0.338267 -0.20556685 -0.23390062 -0.1349333 0.14889507 -0.06896095 0.22945106 -0.2847668 -0.17662734 -0.067461506 0.40849614 0.06252012 -0.095689595 0.07332291 0.2594548 0.1285678 0.14904197 0.24818958 -0.3540705 -0.2286792 -0.31600198 0.11733645 -0.01229662 -0.0006301915 0.16054118 -0.118964225 0.4550228 0.03859462 -0.3567349 0.3349932 0.20331404 0.040664524 0.25490716 0.37642866 -0.01982828 -0.4933432 0.051715076 -0.18552999 -0.068768516 0.1704232 0.17488143 0.19738004 -0.04460789 -0.26530564 0.13955377 0.24239707 -0.21924786 0.25498164 0.13709079 -0.18190758 -0.23044115 0.48447117 -0.11034732 -0.06259338 -0.29121137
12 0.15418494 -0.004554863 -0.25278264 -0.22975855 0.13158864 0.26231608 -0.17148468 -0.12680537 -0.18876246 0.20326331 0.048160814 0.08331947 -0.07173896 -0.066276856 0.016121555 0.24613567 -0.042974003 0.044394128 0.17901191 0.04540448 -0.08784258 -0.09987704 -0.002118735 0.061233524 -0.08585963 0.10629091 0.2718798 0.08994898 -0.14101304 -0.06213384 0.0373089 0.088815704 -0.06717941 -0.0614432 -0.1868487 -0.28672412 -0.15018214 0.101805665 0.07587188 0.13597439 -0.21708682 -0.07929145 0.2090741 -0.22759177 -0.03769894 -0.09831728 0.19998288 -0.20909221 0.05531829 0.07735031 0.1651818 0.011219225 0.03124517 -0.06676238 0.38362247 -0.35019702 0.17453253 0.32024124 0.0068441443 -0.42476147 -0.025108658 -0.12917973 -0.2995791 -0.35942805
11 0.32772872 -0.008093372 -0.1445313 -0.24942295 0.0019460854 0.28668872 -0.4163348 -0.24575934 -0.45175987 0.037210856 0.06881258 0.35756692 -0.21736398 -0.22424456 -0.10172635 0.30823302 0.09181204 0.42132473 0.01240335 -0.0051178657 0.14325035 -0.2257538 -0.07344995 -0.12120779 -0.18119146 0.13684553 0.24606691 0.37379423 0.020934274 0.23569913 -0.2417698 -0.03523004 -0.1652527 0.013781488 -0.21970826 -0.35243702 -0.2020371 -0.18374157 -0.09062283 0.18091528 -0.16143635 -0.026112739 0.3215878 -0.018362412 0.08147249 -0.078386314 0.114401795 -0.08567763 0.13040234 0.09523374 0.19060913 0.1848197 0.06143408 -0.2912311 0.3449828 -0.27839798 0.22494024 0.28106764 -0.095889375 -0.5046916 -0.18810508 -0.07279938 -0.5693966 -0.3122316
