34 34
33 -0.32965556 0.11052967 0.7335341 -0.011879988 0.07683583 0.09373106 -0.05620601 -0.17432518 -0.24384098 -0.32658848 -0.2985458 -0.3074374 -0.37372854 0.18733035 -0.46522605 -0.20117861 0.13350086 -0.19915918 0.20643756 -0.12043935 -0.2240286 0.11192353 -0.1806801 0.16789678 -0.22037849 0.0036708096 -0.20846306 0.12110273 -0.04871711 -0.03571945 -0.095740564 0.20549968 -0.22112645 -0.09129848
0 -0.026758421 0.6348068 0.32901067 0.17439422 -0.21272469 -0.06566209 -0.0054736207 -0.19620179 -0.07565991 -0.0888955 -0.32164758 -0.34997347 0.13397324 -0.5630412 -0.050769854 -0.12197908 -0.05938615 -0.12381846 0.5052404 -0.26906413 0.43100035 -0.014511861 -0.0648155 0.07251241 -0.19025071 -0.035403416 -0.025467651 -0.045419104 0.03980683 0.18044351 -0.022203071 0.087174155 0.028872248 -0.10014328
32 -0.14914012 0.12621257 0.67568594 0.17766729 0.026917605 0.17564227 -0.13712984 0.080865584 -0.27067533 -0.25417572 -0.33611503 -0.14170101 -0.53555703 0.2833295 -0.55815285 -0.13409701 0.022793468 -0.23474479 0.31089374 -0.07747292 -0.3072889 0.15861124 -0.12902977 0.036023684 -0.3691049 -0.22452022 -0.23587593 0.024161298 -0.1676054 -0.13730592 -0.29945305 0.47478712 -0.26149645 -0.25393555
2 -0.23687118 0.32250074 0.27701312 0.19780442 -0.118048355 -0.20368552 -0.11288929 -0.41738278 -0.17432551 -0.17137803 -0.4721337 -0.41138145 -0.17440458 -0.28688598 -0.2719576 0.016741633 -0.12932958 -0.035139013 0.45809776 0.062728114 0.15117729 0.02308582 -0.018253524 0.10922667 -0.21231875 0.05407659 -0.0038550035 0.13020508 -0.14083712 0.085132144 0.17999321 0.14590523 -0.036736302 0.10498075
1 -0.10743594 0.5717187 0.27246776 0.26755166 0.081355885 -0.288697 -0.21178347 -0.36466116 -0.18432067 -0.55676687 -0.34725952 -0.49743092 -0.017519671 -0.5561842 -0.053860053 -0.14684603 -0.04889302 -0.1979556 0.43383032 -0.10901111 0.3046572 -0.20304944 -0.07947848 0.2023681 -0.31056517 0.06346429 -0.09070691 0.016016342 -0.1407865 0.18363638 0.32069355 0.30972192 0.22023323 -0.047763184
31 -0.44925013 0.18367876 0.49088985 -0.070961386 -0.17090906 -0.019644564 0.16882028 -0.4880146 -0.15785526 -0.0031066884 -0.43764296 -0.45329955 -0.3656711 0.17887023 -0.4720975 0.062016822 -0.0565723 0.09568172 0.3636029 0.2050779 -0.15784277 0.13107747 -0.1816269 0.24007419 -0.17400989 0.10464131 -0.04538932 0.46007764 -8.657854e-05 0.011842165 0.030778518 -0.13073473 -0.40869924 0.29739818
23 -0.35371777 0.1856142 0.70632076 -0.1310442 -0.06332873 0.18929207 0.19321196 -0.1945761 -0.20832811 0.02540694 -0.2186091 -0.29821607 -0.58276 0.47815034 -0.46513245 -0.035638425 0.036865044 0.0922925 0.2156803 0.1467163 -0.45671463 0.10791321 -0.21920225 0.35060832 -0.1685569 0.01681584 -0.20096096 0.58504975 -0.051219348 0.038453273 -0.33266455 -0.060060922 -0.6771617 0.2542942
3 -0.14630307 0.52984476 0.2712484 0.4325984 -0.115960896 -0.40464 -0.21383719 -0.437776 -0.26051104 -0.25357312 -0.5453399 -0.47284156 -0.11143112 -0.6119789 -0.09082647 -0.11263329 -0.14892653 -0.047844067 0.48516673 -0.053034842 0.33504173 -0.045989886 -0.04520909 0.09540757 -0.28700617 -0.031578213 -0.0048020794 0.021573022 -0.14255786 0.2042656 0.32868153 0.20738865 0.14119074 -0.0150526
8 -0.2213247 0.24820974 0.6070346 0.06423186 0.00012848573 0.115698546 -0.015785431 -0.010165034 -0.07324568 -0.16213223 -0.39207125 -0.21412838 -0.27825692 0.11077449 -0.4074498 -0.08968326 0.0010206953 -0.16648671 0.33689517 -0.09489986 -0.15708235 0.16365501 -0.081687056 0.06027308 -0.26215914 -0.047907323 -0.14507104 0.03468391 -0.124747135 0.007017324 -0.16109362 0.2526402 -0.25324103 -0.16840678
13 -0.2724336 0.32899287 0.24913059 0.3555466 -0.08675816 -0.3435327 -0.16962315 -0.5249214 -0.29309863 -0.21827918 -0.549316 -0.39748156 -0.2519934 -0.40588853 -0.27468345 -0.035306413 -0.08141692 -0.04505954 0.40041465 0.03646695 0.21707983 0.07108571 -0.073619634 0.007881481 -0.14793815 0.003608743 0.068502486 -0.011787167 -0.109161645 0.13513622 0.29200688 0.17434675 0.051342208 0.028201308
29 -0.25044084 0.27974814 0.91552067 -0.019712923 0.023885034 0.2960605 0.06334782 0.11160679 -0.21859318 -0.18561244 -0.17064923 -0.18731329 -0.4686601 0.31136912 -0.3707769 -0.31527978 0.19368385 -0.078235805 0.11189216 -0.3128869 -0.42307094 0.15482286 -0.1793412 0.23801264 -0.27885816 -0.10797089 -0.24946892 0.1664723 -0.012065144 0.09499603 -0.42843384 0.23040447 -0.53375083 -0.21568522
30 -0.18135722 0.25727442 0.47671086 0.2927392 0.07698745 -0.131413 -0.21108691 -0.20505813 -0.29461712 -0.41585374 -0.41920805 -0.349503 -0.32341316 -0.101859376 -0.36420134 -0.12838836 -0.026673267 -0.28163305 0.33958024 -0.0056976657 0.012807594 -0.01931438 -0.11035725 0.08464419 -0.29666498 -0.04879931 -0.1660689 0.021966258 -0.17650926 -0.039853137 0.15936504 0.386637 0.08942693 -0.17240754
5 0.3501927 0.8382059 0.6986869 -0.0003546637 -0.848371 0.2983445 0.10253254 -0.09708645 -0.0818409 0.52876604 -0.18251833 -0.32365867 0.36246413 -0.7864893 -0.1907712 -0.20998667 -0.23355028 -0.045537986 1.1336238 -0.6118003 0.88125885 0.06745886 0.056464463 -0.07322725 -0.1082548 -0.19901283 -0.08761237 -0.05311127 0.31840956 0.121738896 -0.63586974 -0.15925893 0.02660009 -0.37327284
6 0.31227154 0.7651189 0.6463672 -0.012070612 -0.74736387 0.25262505 0.114212394 -0.07466515 -0.047239527 0.4834698 -0.09547207 -0.25121823 0.3715526 -0.71953195 -0.13155541 -0.2243134 -0.1227112 -0.0041956194 0.9554501 -0.5858072 0.8131203 0.05478259 0.033535883 -0.045555286 -0.019495117 -0.16508217 -0.06476453 -0.06172027 0.33297354 0.15873085 -0.5977286 -0.23472479 0.028117187 -0.34569913
27 -0.27337903 0.21094723 0.48953548 -0.005145763 -0.2988413 0.068330765 0.20162614 -0.30924684 -0.17633763 0.26172093 -0.3656623 -0.34155837 -0.46334997 0.27853948 -0.39319417 0.02557585 -0.15151596 0.23931588 0.30284116 0.18723142 -0.24121778 0.1553351 -0.09904348 0.2346866 -0.14907353 0.04673719 -0.053534247 0.5727486 -0.01933992 0.07485503 -0.17077458 -0.15012087 -0.56092626 0.30590898
24 -0.4679997 0.058667798 0.5875235 -0.073016934 -0.27458173 0.06408666 0.24633954 -0.58106905 -0.28814876 0.20053282 -0.48302788 -0.47952428 -0.6262647 0.43944442 -0.60311663 0.08209255 -0.09908548 0.19493961 0.33000875 0.33625093 -0.33120838 0.18622708 -0.2209389 0.29707804 -0.12810944 0.11191235 -0.07370238 0.6973155 0.035951186 -0.0036517992 -0.08494757 -0.20354025 -0.6620628 0.46166214
7 -0.009247955 0.45546013 0.28762808 0.32099906 -0.2489889 -0.24415068 -0.17423844 -0.32260004 -0.18649401 0.0036062552 -0.3671963 -0.29494813 -0.01785127 -0.62558883 -0.13889892 -0.0950145 -0.19240704 -0.07722712 0.6306877 -0.16789986 0.4800615 0.043572333 0.03654751 -0.11721643 -0.092079416 -0.070062295 0.010876022 -0.09741716 -0.088639386 0.1293735 0.051531494 0.11864541 0.21099158 -0.14238723
25 -0.41456446 0.15879457 0.6904097 -0.30905226 -0.30475172 0.23479764 0.42239314 -0.45268616 -0.15415193 0.2818855 -0.29684892 -0.4752995 -0.4553806 0.49080056 -0.5191395 0.026146986 -0.061218787 0.24578401 0.31311882 0.22774813 -0.32606205 0.16663255 -0.22651996 0.42011476 -0.072326705 0.16083756 -0.11657951 0.8108017 0.1560176 0.03865858 -0.27231443 -0.40590432 -0.76912606 0.4627342
10 0.08537356 0.65095013 0.71244025 -0.07537081 -0.57560277 0.2793685 0.13893558 -0.055747263 0.03915864 0.44286108 -0.15935932 -0.18465015 0.24805237 -0.56417614 -0.20123653 -0.16960725 -0.108805545 -0.108894594 0.88384956 -0.54912734 0.6026069 0.19986989 -0.0054929885 -0.14045605 0.014895651 -0.13854092 -0.06989868 -0.17094961 0.20532568 0.13198797 -0.6519988 -0.14007564 -0.09556313 -0.32616374
4 0.12900694 0.7352222 0.520075 -0.11789132 -0.5658409 0.17427382 0.18596332 -0.21162996 0.055704307 0.37116525 -0.20002325 -0.28530908 0.4194165 -0.7245486 -0.11170275 -0.10856235 -0.15606953 -0.109592594 0.9154716 -0.5281422 0.77762675 0.11281566 -0.009023072 -0.11126295 0.022790018 -0.0460048 -0.00036938314 -0.10654893 0.21125719 0.19961008 -0.44819173 -0.25323847 -0.005293966 -0.2431266
18 -0.4869284 0.12625015 0.7490993 -0.16465406 0.11882241 0.24554938 0.047328882 -0.120818585 -0.030559711 -0.32227162 -0.2848094 -0.24769515 -0.31706575 0.2770722 -0.49992284 -0.16962823 0.09458432 -0.17775458 0.24106134 -0.16651192 -0.35763073 0.2183154 -0.17590196 0.12715259 -0.17441815 0.068150654 -0.16083074 0.07055408 -0.11316185 -0.08690929 -0.15535131 0.22783208 -0.28886175 -0.11262837
19 -0.21766517 0.46278727 0.30215183 0.050335437 -0.10480588 -0.0824427 -0.025915338 -0.43322846 -0.10630613 -0.26211774 -0.36205074 -0.43610236 -0.015048154 -0.43083018 -0.17539215 -0.033069205 -0.046041846 -0.13049218 0.47709256 -0.13953546 0.27539632 -0.036607984 -0.10943656 0.14121513 -0.18193161 0.036954843 -0.02575209 0.027323786 -0.013288033 0.15013209 0.09852461 0.0892002 -0.037483074 0.028499851
28 -0.35948086 0.1909115 0.52874565 0.20296812 -0.029636223 -0.07281108 -0.12519707 -0.4422242 -0.3580837 -0.33069125 -0.31459767 -0.49290583 -0.3997962 0.02848495 -0.31055254 -0.19320007 0.017357957 0.0084944535 0.173996 0.009927979 -0.16328633 -0.03395439 -0.18385693 0.26405576 -0.21538766 0.09962336 -0.13650845 0.3252201 -0.045460243 0.036044046 0.2686711 0.14118448 -0.08974395 0.06671711
21 0.007934601 0.58188623 0.2030408 0.1715812 -0.16038029 -0.16703686 -0.13668333 -0.45328668 -0.12261487 -0.2810186 -0.2365946 -0.5108012 0.1682162 -0.69473004 -0.011738565 -0.10786753 -0.12246427 -0.17828651 0.6213392 -0.1482555 0.61734253 -0.19241588 -0.05459533 0.119645186 -0.09591716 0.13815679 -0.02527519 0.00729867 0.00038761878 0.14257544 0.26144305 0.089830935 0.351559 -0.0066135037
26 -0.37597287 0.3385385 0.91503274 0.017303817 0.10260975 0.18295643 0.019372523 -0.058042653 -0.22059815 -0.30998757 -0.16559781 -0.3398616 -0.43632573 0.20061496 -0.22163004 -0.38814622 0.16849534 -0.018516634 0.02784289 -0.31211534 -0.45359758 0.0750254 -0.24452242 0.341135 -0.24870935 0.06986546 -0.24195857 0.29714474 -0.04756592 0.18806587 -0.13359141 0.15710825 -0.46419117 -0.08103668
14 -0.34151238 0.14952435 0.7819283 -0.15370548 0.1187962 0.30916893 -0.017962806 0.05208693 -0.05057763 -0.34931868 -0.19639246 -0.1490182 -0.3530293 0.33219084 -0.4942601 -0.19095775 0.15256663 -0.21474335 0.2393144 -0.21772197 -0.40799648 0.18484879 -0.16680537 0.14129129 -0.25633624 -0.06212691 -0.23419523 0.0387891 -0.114440285 -0.12460998 -0.33642015 0.3334488 -0.32764998 -0.22252968
22 -0.56299776 0.0425605 0.87291366 -0.03586555 0.16587989 0.2203612 -0.056411393 -0.16887005 -0.205531 -0.44512925 -0.3544035 -0.30231524 -0.5672493 0.4015147 -0.5746404 -0.16165493 0.17663988 -0.26111066 0.17119585 -0.05891386 -0.5244503 0.19457383 -0.28970733 0.21025014 -0.3012917 0.013788011 -0.25062928 0.19499734 -0.15707935 -0.115170516 -0.10856533 0.32714474 -0.35164228 -0.07475924
16 0.5199649 1.0629231 0.6679601 0.058773454 -0.90866363 0.2541954 0.19616826 0.07171909 -0.042497173 0.6588344 -0.16838554 -0.30675125 0.4008902 -0.8237617 -0.07002842 -0.19605316 -0.32224593 0.060970295 1.1727048 -0.64387965 0.89293575 -0.0043649115 0.06213334 -0.032466616 -0.19540244 -0.277458 -0.11469616 0.102602206 0.2701884 0.21972278 -0.7411332 -0.20919298 -0.105937466 -0.31153637
15 -0.44647866 -0.033688977 0.74967515 0.06504495 0.014520481 0.124303654 -0.021801075 -0.12627696 -0.19520505 -0.14150563 -0.4401133 -0.27464157 -0.5362951 0.31780127 -0.47179225 -0.09169588 0.023849485 -0.057561155 0.17219129 0.028966254 -0.47116372 0.24266078 -0.19387788 0.11180312 -0.35369098 -0.07617508 -0.15553126 0.23924552 -0.14511155 -0.13074256 -0.08346155 0.26395366 -0.37635115 0.006077273
17 0.0051763 0.6461505 0.34411559 0.34351254 -0.2896088 -0.2848212 -0.14397134 -0.3679256 -0.20437291 -0.033486128 -0.43488443 -0.43644282 0.09959302 -0.81494075 -0.015211483 -0.15868226 -0.17012447 -0.10149743 0.68299055 -0.21953285 0.62365884 -0.03884371 0.0050473963 0.01575104 -0.2120041 -0.06613323 0.045270395 -0.07869494 -0.03495787 0.20011282 0.11001123 0.08475982 0.22785555 -0.09043412
9 -0.4146646 0.22109613 0.3698783 0.20655045 -0.09322921 -0.17080717 -0.09260291 -0.3933565 -0.18668133 -0.12910189 -0.58501947 -0.34960148 -0.36016378 -0.07545827 -0.4564737 0.032577217 -0.07987582 -0.010847181 0.3723663 0.107843764 -0.037655093 0.23688339 -0.06698004 0.021299496 -0.20038517 -0.008748911 0.03151966 0.05500095 -0.16721001 0.044880986 0.12300877 0.20826723 -0.19958773 0.07389613
20 -0.4277009 0.090038985 0.64520675 -0.023851058 0.23526993 0.15538254 -0.0654409 -0.041964363 -0.09530329 -0.36655414 -0.3834615 -0.14072247 -0.46229252 0.3270714 -0.5989665 0.016025376 0.11899012 -0.38788784 0.3062054 0.035705406 -0.32409722 0.21962856 -0.19245867 0.027769383 -0.3128706 -0.13201788 -0.25567847 -0.07739777 -0.2311976 -0.13749553 -0.22093509 0.4555459 -0.3009355 -0.17948885
12 -0.06388938 0.6004238 0.31599557 0.37571508 -0.09069945 -0.37480593 -0.18166971 -0.35604498 -0.21097496 -0.34507468 -0.44727245 -0.4078769 0.10941413 -0.7725049 -0.015348044 -0.22011025 -0.046568718 -0.15762879 0.4834382 -0.23799446 0.51585704 -0.03332445 -0.061612 0.04981635 -0.2644424 -0.058430426 0.022879293 -0.20608929 -0.02549233 0.19892915 0.2720647 0.2014194 0.30910483 -0.24529655
11 -0.05644627 0.8284193 -0.075825796 -0.11135391 -0.32739955 -0.12886141 0.20880349 -0.5651696 0.1555907 -0.15210535 -0.3764502 -0.6075742 0.3239654 -0.73525023 0.09608467 0.14446597 -0.23962232 0.0701285 0.7061631 -0.08067577 0.5300394 -0.20402181 0.03142085 0.3093064 -0.2025062 0.23922089 0.10924719 0.31233993 0.024732295 0.39159644 0.20499557 -0.14143695 -0.15296896 0.33436552
