34 34
33 -0.06738086 -0.2955459 0.08751182 -0.037081614 0.007502506 0.1693064 0.117577374 -0.27263123 -0.33722478 -0.078987256 0.0072662006 -0.15422651 0.59429055 -0.13737632 -0.033764973 -0.10655913 -0.05337551 0.49895838 0.23563772 -0.28156835 -0.039442252 -0.0841733 0.20286761 -0.123064436 -0.05980755 0.071688846 0.18550488 0.21677159 -0.070378594 0.39886203 0.29395637 -0.3195467 -0.5470503 -0.0013083417
0 0.35443285 0.108577415 -0.20675084 0.44899115 -0.20171067 0.28540716 0.052587245 -0.04650871 -0.50363207 -0.19173363 -0.5191769 -0.2547467 0.28050992 -0.035904057 0.1854395 0.2682291 0.2002762 0.20294726 -0.27696016 -0.032875415 0.0053170933 -0.06296032 0.13421646 -0.41346818 -0.03837788 -0.122054175 0.06568812 -0.071574025 0.057085697 -0.020781673 0.22507294 -0.1346102 -0.14069375 -0.3058142
32 0.022569258 -0.31906182 0.050795745 -0.010601519 0.16777413 0.33654404 -0.008927679 -0.30783638 -0.4100874 0.047480013 0.082600586 -0.14732113 0.45873523 -0.10434777 -0.12139702 -0.25739247 -0.07228771 0.17405576 0.24156725 -0.08551565 -0.1375806 -0.13589036 0.43145478 -0.07736073 -0.21954654 0.1462737 0.12086353 0.14599246 0.07089226 0.65335643 0.3367276 -0.4497232 -0.7462691 0.10009876
2 0.3165866 0.047373716 -0.20670617 0.14122923 -0.06518369 0.23855709 0.18474855 -0.155365 -0.35122052 -0.15970536 -0.12256536 -0.18984817 0.40016547 0.094148435 0.0015824642 0.13591217 0.054327194 0.31274137 -0.050479505 -0.46281612 -0.022845719 0.1491871 0.14874007 -0.35712832 0.02367728 0.21907564 0.15055735 -0.12501267 0.14654097 -0.056571465 0.12784101 -0.18699436 -0.34571764 -0.3587303
1 0.45335615 0.45077738 -0.4040115 0.34898192 -0.291895 0.28718662 0.21127947 -0.17434458 -0.5315682 -0.20082429 -0.27676606 -0.10334266 0.2421324 -0.1269447 0.18019167 0.083644405 -0.012425392 0.556904 0.031003375 -0.36480367 -0.10444067 0.12800448 0.049246885 -0.5667298 -0.097988985 -0.17023799 0.0024039699 -0.13847765 0.063045986 -0.03590083 0.272782 -0.097511485 -0.33673188 -0.35278112
31 -0.006459702 -0.45696184 0.07112341 -0.10015471 0.15001364 0.12114875 0.23927116 -0.063858636 -0.12813434 -0.065687634 0.0050159036 -0.34973192 0.75171405 0.13939442 -0.2533565 0.26991233 -0.07702657 0.43147606 -0.019712657 -0.5544719 0.09454151 0.12581122 -0.00041926163 -0.18465686 -0.047969006 0.4562529 0.39484373 0.17737614 0.016908374 -0.018992227 0.053813376 -0.27177522 -0.39075473 -0.24903868
23 -0.14873323 -0.71485233 0.1993012 -0.23526213 0.29190964 0.16729775 0.19618699 0.08149726 -0.06476823 0.047648497 0.08306881 -0.30972493 0.8766282 -0.13273771 -0.33683762 0.20645824 -0.2559856 0.34796304 0.08982786 -0.30556867 0.121602945 0.054307852 -0.038043518 0.028996192 -0.3487665 0.385595 0.3649927 0.46133026 -0.12163437 0.33376613 0.2866779 -0.23179467 -0.5263827 -0.06453506
3 0.54932886 0.3773607 -0.35169837 0.33514932 -0.25957954 0.3083008 0.24198475 -0.18468323 -0.53060085 -0.14690647 -0.28336176 -0.15653697 0.30370304 0.03822288 0.06677191 0.088401005 0.095920965 0.34675422 -0.21567199 -0.5099892 -0.040829655 0.20183462 0.118972436 -0.53585076 -0.063543655 0.056997877 -0.01725967 -0.22195874 0.16586936 -0.028431905 0.23385364 -0.2003467 -0.31470874 -0.4866565
8 0.07500949 -0.2995844 0.039684363 0.048638925 0.11892806 0.26951993 0.0042051147 -0.19407122 -0.37365457 -0.020790583 -0.043571647 -0.20495924 0.48565128 -0.027541298 0.0017334982 -0.03309889 0.017466491 0.2581643 0.13357514 -0.12905817 -0.064390354 -0.10961755 0.26175776 -0.16467665 -0.16774353 0.022541964 0.20396449 0.08831381 0.08056563 0.322357 0.25824013 -0.2867742 -0.5376856 0.049798068
13 0.38181055 0.2015442 -0.26474828 0.15573141 -0.19327167 0.24548437 0.24030106 -0.21844769 -0.42926025 -0.17046967 -0.1736128 -0.12905264 0.37329748 0.1999508 -0.07160779 0.010000385 0.086574234 0.34134972 -0.11868941 -0.5618642 -0.073317915 0.21308097 0.21541917 -0.38157642 0.057883173 0.17548206 0.02481538 -0.22838178 0.15977791 0.020788025 0.08533431 -0.19694096 -0.3643456 -0.4414387
29 -0.08010375 -0.5597239 0.22533931 -0.024807755 0.10413479 0.26402467 -0.059901595 -0.0923357 -0.3514206 -0.049956385 -0.14974226 -0.19440047 0.67017174 -0.31572744 -0.068129055 -0.06850521 -0.14032027 0.35126203 0.16382438 0.00035512308 -0.026163753 -0.14035045 0.13449715 0.08613696 -0.35039195 -0.011512083 0.24348813 0.40472695 -0.2141309 0.67581975 0.47185922 -0.3448345 -0.61671066 0.16330384
30 0.21655376 0.14415719 -0.18200277 0.12348904 -0.07933577 0.23629208 0.2091208 -0.35421303 -0.4576304 -0.00050125667 0.025406238 -0.0908729 0.32579347 -0.02426614 0.020714607 -0.14195186 -0.012238668 0.43452778 0.16040467 -0.3744406 -0.14300764 -0.01942134 0.2843329 -0.37208438 -0.04681054 0.047990628 -0.004356902 -0.045745384 0.14485218 0.28660393 0.28668696 -0.35855776 -0.54717976 -0.14970902
5 0.35757065 -0.32509798 0.0017067259 0.99670464 -0.04400787 0.21213625 -0.029721506 -0.113228306 -0.66238344 -0.32656825 -0.9374332 -0.6579449 0.34214532 0.092444845 0.51633143 0.62893873 0.5483878 -0.27763262 -0.7180891 0.52582455 0.32591292 -0.61878556 0.46666583 -0.5602885 -0.018478943 0.3164368 -0.10297019 0.022187617 0.11681846 0.06165758 0.33648822 -0.32419673 0.07974326 -0.4054835
6 0.25003448 -0.28812703 0.041702922 0.90436286 -0.1090209 0.16652937 -0.0107236095 -0.039173115 -0.57073385 -0.29649353 -0.86468583 -0.5758805 0.31405804 0.046466954 0.480539 0.57295203 0.51942253 -0.263127 -0.68416464 0.51981235 0.3513149 -0.55092907 0.3726794 -0.47278574 -0.0037405977 0.22490367 -0.13711198 0.06414962 0.050755117 0.029607126 0.3265356 -0.23342489 0.11150951 -0.35767186
27 0.045716804 -0.6173614 0.13834518 -0.120058626 0.3101829 0.17283246 0.19220287 0.09048395 -0.028051035 0.020176891 0.01576927 -0.35150608 0.7297385 0.10086808 -0.30703393 0.32148635 -0.121352926 0.17901267 -0.16848081 -0.40420166 0.11408918 0.09541404 -0.07350568 -0.02037534 -0.22680348 0.5484305 0.36237136 0.21472014 0.0063139726 0.11400866 0.19666031 -0.27326328 -0.34105378 -0.25499067
24 -0.089294 -0.7458392 0.16769502 -0.3162716 0.33736023 0.105724484 0.3078052 0.005771585 0.023773715 -0.01472378 0.08183866 -0.42786455 0.9661972 0.20276274 -0.4641577 0.3223039 -0.21491404 0.37818405 -0.069350824 -0.6502959 0.10273353 0.17066535 -0.053838585 -0.0590371 -0.118088424 0.72886664 0.4577719 0.27735466 -0.029342674 0.12182023 0.1047652 -0.3513932 -0.4674528 -0.35052916
7 0.46683437 0.18328768 -0.2410609 0.46665466 -0.195903 0.21865283 0.17248397 -0.1904956 -0.5204543 -0.17373109 -0.32306895 -0.1836487 0.18927743 0.15106404 0.18270506 0.16340533 0.32203722 0.072225645 -0.27862248 -0.19958511 0.07473182 -0.030883051 0.33038062 -0.44274053 0.06466793 0.15862721 -0.13322686 -0.26555607 0.248601 -0.012733152 0.15702066 -0.19547096 -0.16312818 -0.3947185
25 -0.23760505 -0.91243696 0.30102086 -0.22849087 0.38717845 0.029703222 0.25814703 0.1573129 0.097249314 -0.016870592 -0.011828905 -0.4901126 1.0186777 0.050989714 -0.3554509 0.5226933 -0.19994593 0.38222948 -0.12602058 -0.45325008 0.22745712 0.022530174 -0.17325886 -0.03323576 -0.20573857 0.6689064 0.54678786 0.49978226 -0.1416673 0.045209758 0.1516552 -0.27969033 -0.31445026 -0.23662965
10 0.2049758 -0.45844895 0.11086739 0.70073473 -0.069983274 0.18575574 -0.04628243 -0.041747518 -0.58485407 -0.26264763 -0.74378276 -0.5189938 0.42075658 0.05437376 0.40304363 0.4822224 0.56733924 -0.18031508 -0.45292965 0.46575892 0.3153282 -0.5086054 0.4968748 -0.3439471 0.016044347 0.1192848 -0.016264983 0.019015534 0.11845221 0.091638714 0.20732756 -0.23720577 -0.005584336 -0.18161903
4 0.26875684 -0.2739624 -0.00020254636 0.7519317 -0.1289806 0.13963842 -0.00994836 -0.02232627 -0.5646426 -0.3448807 -0.82581055 -0.5233084 0.35271817 0.112309694 0.41844538 0.61544997 0.5219569 -0.0913684 -0.56470525 0.38198167 0.28605384 -0.43841323 0.3616054 -0.5118466 0.063772716 0.05856941 0.007873342 -0.06280348 0.10150484 -0.14223213 0.15647952 -0.1147546 0.11786327 -0.31888524
18 -0.1690911 -0.46946755 0.20029739 -0.03106954 0.06656287 0.16508387 -0.036250632 -0.21004753 -0.32119772 -0.099669695 0.043135483 -0.15642765 0.6259627 -0.06216306 -0.010761851 -0.053805795 0.0602655 0.54127693 0.36825103 -0.24191912 -0.05958467 -0.17639534 0.2879595 -0.015597256 0.0085093295 0.059186514 0.36440217 0.16701365 -0.012238568 0.28449273 0.1851814 -0.34469664 -0.5755248 0.21182267
19 0.27791244 0.061064776 -0.22808743 0.28041613 -0.16567071 0.21840999 0.11819081 -0.13137992 -0.41750818 -0.23772715 -0.37386924 -0.24225836 0.41318685 0.01956717 0.10080591 0.21857418 0.046431534 0.41742036 -0.07003906 -0.24402654 -0.026823917 0.043988094 0.102167085 -0.43349692 0.011975714 0.022970524 0.13854921 -0.062899224 0.012580729 -0.07278537 0.08712762 -0.089881144 -0.270216 -0.31985652
28 0.105341844 -0.050252695 -0.08785686 0.044534635 -0.12307042 0.12537195 0.25798818 -0.25212693 -0.22907914 -0.013963458 0.025749717 -0.1301819 0.54517716 -0.055547234 -0.0921553 -0.006119624 -0.12819341 0.6194916 0.114180975 -0.5957176 -0.04194216 0.10755212 -0.012259683 -0.21418852 0.0035070041 0.3094015 0.14264339 0.104515016 -0.072245896 0.13940734 0.28632075 -0.35156754 -0.45873383 -0.21219172
21 0.41624954 0.373032 -0.38761935 0.51303697 -0.29140773 0.18959156 0.26471263 -0.11628499 -0.46316844 -0.28941378 -0.42568597 -0.22570014 0.163331 0.03780492 0.3034204 0.32593828 0.18014221 0.43560985 -0.14309701 -0.19939215 -0.003637863 -0.053782623 0.09213387 -0.6050887 0.070688464 -0.0026917218 -0.072701395 -0.22328666 0.0896486 -0.2604284 0.17420214 -0.07509296 -0.047456797 -0.44798008
26 0.016619805 -0.3985188 0.14504363 -0.0003147996 -0.041688077 0.21031217 0.024478734 -0.072566964 -0.3103162 -0.04390049 -0.13490121 -0.13800135 0.7537317 -0.39671606 -0.020998567 0.011996066 -0.18576202 0.6644417 0.20220271 -0.2632716 -0.006004051 -0.009732449 -0.093103684 0.036939938 -0.33435673 -0.050587248 0.27763894 0.40424436 -0.29506937 0.4765197 0.48302886 -0.28404218 -0.5378362 0.11996235
14 -0.19636159 -0.45576456 0.21704337 -0.016466953 0.12073721 0.23547229 -0.085153766 -0.19326371 -0.35338828 -0.099292636 0.012620613 -0.16842355 0.6016501 -0.13413693 -0.02270113 -0.15806957 -0.026765687 0.44745535 0.3972827 -0.0058203656 -0.056412872 -0.23784484 0.32637486 0.002776898 -0.15667155 -0.018449428 0.27581146 0.2435654 -0.046610333 0.47467354 0.2498231 -0.3306073 -0.63264954 0.30061737
22 -0.14434607 -0.46793142 0.1147297 -0.20732068 0.12385082 0.23717713 0.11605809 -0.35117853 -0.33756927 -0.0062240185 0.17024432 -0.2141014 0.768372 -0.13191982 -0.16339989 -0.19319029 -0.11841464 0.69812274 0.5139926 -0.33142817 -0.085439995 -0.09617571 0.23616253 -0.045156747 -0.1438637 0.097171456 0.28515118 0.2496708 -0.048213318 0.49915922 0.2811693 -0.3835347 -0.7353738 0.17984301
16 0.48138133 -0.3759023 -0.01780328 1.0962182 -0.0072780987 0.31458348 -0.07047801 0.08457367 -0.6734631 -0.23861374 -0.9747778 -0.67486876 0.31785327 -0.02296048 0.48165616 0.7920598 0.5115498 -0.47834972 -0.90994227 0.62580174 0.39507177 -0.5563759 0.3158803 -0.57266027 -0.23562104 0.2736745 -0.056567274 0.10280859 0.13735415 0.039461702 0.51036364 -0.27610144 0.059595924 -0.4338
15 0.0023775958 -0.43286425 0.14591603 -0.19175135 0.20404175 0.22627915 0.061552357 -0.2786443 -0.27238724 0.042495534 0.16788885 -0.23610266 0.6621368 -0.012953226 -0.19739671 -0.14251554 -0.0595542 0.43952653 0.30984354 -0.39334926 -0.080135845 -0.038050015 0.18114787 0.013375993 -0.19508046 0.26846486 0.28894454 0.20004757 0.022263028 0.43820587 0.17359951 -0.49091977 -0.548716 0.084883705
17 0.573518 0.3074306 -0.3172345 0.5327627 -0.28898185 0.24237229 0.191049 -0.15583447 -0.6268169 -0.26070026 -0.5634054 -0.2666987 0.23078682 0.0710472 0.24471767 0.27782652 0.3104549 0.19987561 -0.3710797 -0.23611864 0.07464462 0.0017382032 0.23005587 -0.5811687 -0.022664642 0.027123619 -0.112036124 -0.20007743 0.19667771 -0.06380506 0.22532424 -0.19653757 -0.08003436 -0.49544704
9 0.22991432 -0.16071579 -0.09390498 -0.013095315 -0.022692777 0.31886035 0.119170316 -0.18800259 -0.3511676 -0.114251964 -0.028577419 -0.19764683 0.52604586 0.20070751 -0.15432765 -0.018595241 0.075641066 0.29219684 0.015542356 -0.53158617 -0.07597016 0.2133437 0.2443482 -0.19106115 0.048614934 0.26278389 0.26358476 -0.14486864 0.15894489 0.08557298 0.07632825 -0.2592247 -0.5341508 -0.25361335
20 -0.07918899 -0.35696143 0.06966269 -0.14050373 0.13059941 0.29646635 0.013006522 -0.31084833 -0.41886574 0.023758678 0.14838827 -0.15611279 0.5901407 -0.034198508 -0.13424604 -0.2859492 -0.008596075 0.3633646 0.46237105 -0.14613424 -0.10291533 -0.059337076 0.4408708 -0.14479509 -0.13218634 -0.038090117 0.231429 0.13947669 0.11206152 0.4893097 0.09332842 -0.30940512 -0.78808564 0.1841764
12 0.494884 0.50709903 -0.3200901 0.49498782 -0.40282974 0.2672216 0.1639117 -0.20678021 -0.6403131 -0.25486332 -0.49574772 -0.13706271 0.15837368 0.028496457 0.20223132 0.049205706 0.21050753 0.34342408 -0.24299172 -0.29365283 -0.055111766 0.066170886 0.1974626 -0.61666685 -0.017728895 -0.17293431 -0.1124114 -0.23686664 0.1344035 0.015183648 0.2210463 -0.19672897 -0.20657249 -0.39579222
11 0.51170367 0.1133683 -0.42094392 0.43189555 -0.0435584 0.29044184 0.089005426 0.2299379 -0.2853696 -0.41407156 -0.6435529 -0.4216271 0.3790619 0.049857724 0.18155845 0.72768205 -0.06678337 0.3712175 -0.35099247 -0.14658736 0.00044727977 0.16552006 -0.27712485 -0.64213496 -0.12754363 0.006571849 0.34015244 -0.14549059 -0.07144871 -0.55497193 0.048420295 0.21126224 -0.0014567722 -0.6172491
